tree
version=v4
num_class=1
num_tree_per_iteration=1
label_index=0
max_feature_idx=8
objective=huber
feature_names=Column_0 Column_1 Column_2 Column_3 Column_4 Column_5 Column_6 Column_7 Column_8
feature_infos=[1.0099999900000001:15] [0:259219.75397531001] [1:9] [0:82] [0:15] [28:280] [1:172] [0:103.58196504151745] [0:4]
tree_sizes=6359 6418 6462 6405 6387 6400 6462 6434 6447

Tree=0
num_leaves=63
num_cat=0
split_feature=0 1 4 4 3 0 4 3 6 1 0 4 4 0 3 1 3 1 3 6 0 6 6 0 0 0 0 4 0 1 6 1 1 3 7 7 4 4 4 3 6 7 6 6 6 6 1 6 0 1 3 0 0 6 6 0 1 6 0 1 3 3
split_gain=4.37061 5.1867 4.02731 2.17995 2.40826 2.11749 1.9582 1.77758 2.1973 1.36887 1.32637 1.18769 0.810417 0.73129 0.696791 0.607784 0.602834 0.486757 0.92171 0.435783 0.310823 0.310178 0.347903 0.534507 0.308621 0.25946 0.254088 0.389978 0.248816 0.241434 0.226283 0.218993 0.210291 0.209017 0.202512 0.289409 0.28841 0.194278 0.978504 0.193782 0.186899 0.181717 0.179922 0.179855 0.175038 0.174449 0.169476 0.203031 0.167398 0.158728 0.158223 0.650697 0.28165 0.256289 0.232 0.256699 0.155009 0.148265 0.186519 0.177512 0.145569 0.15691
threshold=1.8999999900000002 1.0000000180025095e-35 10.500000000000002 10.500000000000002 71.500000000000014 2.5499999500000006 2.5000000000000004 73.500000000000014 81.500000000000014 11.245400000000002 4.1000000000000005 1.5000000000000002 1.5000000000000002 2.8500000000000001 75.500000000000014 5.9302000000000001 75.500000000000014 1.0000000180025095e-35 75.500000000000014 119.50000000000001 2.9000000500000005 77.500000000000014 68.500000000000014 1.4800000100000001 2.1250000000000004 2.8500000000000001 1.5199999900000003 1.5000000000000002 1.8350000250000003 114.95275000000002 5.0000000000000009 39.876950000000001 11.619200000000001 62.500000000000007 0.9749508709646415 1.6325194601422683 11.500000000000002 2.5000000000000004 1.5000000000000002 76.500000000000014 21.500000000000004 1.3385648523990981 5.0000000000000009 6.5000000000000009 21.500000000000004 114.00000000000001 5.4395000000000016 6.5000000000000009 1.5199999900000003 26.632250000000003 73.500000000000014 1.2550000000000001 1.7100000250000003 83.500000000000014 68.500000000000014 1.4800000100000001 1.4485500000000002 22.500000000000004 1.9900000000000002 31.996050000000004 76.500000000000014 68.500000000000014
decision_type=2 2 2 2 2 2 2 2 2 2 2 2 2 2 2 2 2 2 2 2 2 2 2 2 2 2 2 2 2 2 2 2 2 2 10 10 2 2 2 2 2 10 2 2 2 2 2 2 2 2 2 2 2 2 2 2 2 2 2 2 2 2
left_child=9 2 -2 6 30 24 11 -7 10 17 20 25 48 -13 -6 -8 34 18 50 57 -9 22 -20 -24 60 32 37 -28 -25 -18 -5 -16 -3 -26 -14 36 -36 38 -19 -29 56 -34 -40 49 -44 -46 -32 -48 -11 -38 -1 -52 53 54 -53 -56 -15 58 -17 -59 61 -4
right_child=1 3 5 4 14 7 15 8 -10 12 -12 13 16 40 31 19 29 26 21 -21 -22 -23 23 28 33 -27 27 39 -30 -31 46 -33 41 -35 35 -37 43 -39 42 -41 -42 -43 44 -45 45 -47 47 -49 -50 -51 51 52 -54 -55 55 -57 -58 59 -60 -61 -62 -63
leaf_value=-0.0014823653989822429 -0.0014513537006426173 -0.0014613949476452981 -0.0014243232145441037 -0.0014432220785788859 -0.0011898608870807008 -0.00067135009578539082 -0.0014980422465503556 0.001234050389626202 -0.00119011377441072 -0.0015699535929279305 0.0056964386783996627 -0.0013972192211065659 -0.001557796070757661 -0.0012561570040066253 -0.0013236636014759338 -0.0014896124663125369 -0.0016765043437049674 -0.0015450821851197383 -0.0015011686175629279 -0.0014725336031684529 0.0026557266976696106 -0.0010971324857650972 -0.0034269563174258912 -0.0023410648080414609 -0.0014244721886768621 -0.0014357301366575985 -0.0014692705971239498 -0.0015160149739776279 -0.0016600615475792317 -0.0018646333613520428 -0.0014688354917898076 -0.0014939797268711166 -0.0015396328826256236 -0.00028726426409083879 -0.0016376130286775779 -0.0015757957020786147 -0.0021533789267287251 -0.0015215075711071755 -0.0016695464202736033 -0.0015877582851786462 -0.0013803029365940266 -0.001464642646544544 -0.0020712463456644559 -0.0015737961891014044 -0.0016544633221610538 -0.0029509571570043446 -0.001672787719214131 -0.0014926232818169754 -0.0015092148231369755 -0.0017677690229137388 -0.0044381502826098609 -0.0014382096684879386 -0.0013324370693759868 -0.00077365394614648973 -0.0033903139764190739 -0.0021101366014108038 -0.0010461463151658769 -0.0015840253857864798 -0.0015692217342556331 -0.0017277111627917044 -0.0012200923913608817 -0.00065779199573472689
leaf_weight=21264 16327 670422 739 217225 129727 1589 1104781 984 588 176707 251 80967 275609 12669 105583 84430 135812 216104 1574 141348 631 711 951 5131 436 584938 493531 949076 1816 19503 61381 22982 203073 5515 217836 268427 5695 377898 7227 104484 7599 134150 12044 3838 4889 274 32368 30253 316828 5022 220 765 3079 370 542 1411 28671 83044 572329 29002 1907 6912
leaf_count=21264 16327 670422 739 217225 129727 1589 1104781 984 588 176707 251 80967 275609 12669 105583 84430 135812 216104 1574 141348 631 711 951 5131 436 584938 493531 949076 1816 19503 61381 22982 203073 5515 217836 268427 5695 377898 7227 104484 7599 134150 12044 3838 4889 274 32368 30253 316828 5022 220 765 3079 370 542 1411 28671 83044 572329 29002 1907 6912
internal_value=-0.00150402 -0.00147035 -0.000871658 -0.00147531 -0.0013868 -0.00038758 -0.0014895 0.000631539 0.00147518 -0.00154458 0.00231505 -0.00145036 -0.00158277 -0.00130499 -0.00127162 -0.00152297 -0.00161021 -0.00151988 -0.00169768 -0.00155322 0.00178952 -0.00210435 -0.00217996 -0.00231523 -0.000653252 -0.00146222 -0.00151678 -0.00150595 -0.00216305 -0.00170013 -0.00147399 -0.00135411 -0.00147759 -0.000370582 -0.00159222 -0.00161116 -0.00165201 -0.00154387 -0.00157899 -0.00152313 -0.0011524 -0.0015098 -0.0018789 -0.0018675 -0.00196683 -0.00172327 -0.00152788 -0.00158575 -0.00153096 -0.00197268 -0.00154792 -0.00176615 -0.00167083 -0.00200824 -0.0021763 -0.00246541 -0.00111051 -0.00156806 -0.00155899 -0.00162122 -0.000829248 -0.00073183
internal_weight=8.00146e+06 4.37282e+06 35879 4.33694e+06 599519 19552 3.73742e+06 4043 2454 3.62864e+06 1866 1.72249e+06 1.42528e+06 129906 258292 2.01493e+06 931742 2.20336e+06 37834 910153 1615 10183 9472 7898 15509 1.59258e+06 2.16553e+06 1.54709e+06 6947 155315 341227 128565 1.00764e+06 5951 776427 500818 232391 618436 240538 1.05356e+06 48939 337223 24434 14555 17207 5163 124002 62621 493535 10717 27651 6387 6167 3088 2718 1953 41340 768805 656759 112046 9558 7651
internal_count=8001459 4372821 35879 4336942 599519 19552 3737423 4043 2454 3628638 1866 1722489 1425277 129906 258292 2014934 931742 2203361 37834 910153 1615 10183 9472 7898 15509 1592583 2165527 1547091 6947 155315 341227 128565 1007645 5951 776427 500818 232391 618436 240538 1053560 48939 337223 24434 14555 17207 5163 124002 62621 493535 10717 27651 6387 6167 3088 2718 1953 41340 768805 656759 112046 9558 7651
is_linear=0
shrinkage=1


Tree=1
num_leaves=63
num_cat=0
split_feature=0 5 7 0 5 5 5 2 2 0 7 4 4 7 2 0 5 5 5 7 4 6 0 6 0 4 4 0 6 7 0 6 7 5 5 0 0 6 0 7 0 7 0 6 6 6 0 2 4 0 0 0 0 4 4 4 6 0 0 2 0 2
split_gain=3.94447 5.50505 6.29307 4.89491 2.48437 2.17759 2.10208 1.8295 1.71645 1.08858 3.76287 1.05441 1.08743 1.0152 0.877981 0.836837 0.829958 0.819647 1.65205 0.764489 0.71289 0.699382 0.791421 0.587688 0.570984 0.532848 0.736085 0.782088 0.526881 0.476071 0.473627 0.47052 0.527718 0.537819 0.620339 0.446527 0.503868 0.43369 0.409208 0.36484 0.34655 0.330548 0.325015 0.349691 0.317854 0.301013 0.29465 0.275171 0.254749 0.234587 0.234049 0.231173 0.215111 0.215055 0.309152 0.214838 0.210321 0.209187 0.217033 0.206804 0.205374 0.201815
threshold=1.8999999900000002 118.00000000000001 1.0000000180025095e-35 2.6500000000000008 118.00000000000001 122.50000000000001 122.50000000000001 5.5000000000000009 5.5000000000000009 1.4900000100000004 1.0000000180025095e-35 2.5000000000000004 8.5000000000000018 0.99026274744992471 8.5000000000000018 1.2350000150000002 122.50000000000001 75.500000000000014 94.500000000000014 0.34862217261225964 1.5000000000000002 68.500000000000014 3.9000000000000004 6.5000000000000009 2.7999999750000004 1.5000000000000002 2.5000000000000004 1.5199999900000003 5.0000000000000009 1.4494163633325805 2.1250000000000004 6.5000000000000009 1.544090533338103 75.500000000000014 87.000000000000014 1.9350000000000003 2.3750000000000004 77.500000000000014 1.8350000250000003 1.4494163633325805 1.3999999900000002 0.029535555881886503 1.4500000250000002 76.500000000000014 119.50000000000001 114.00000000000001 1.8650000100000002 4.5000000000000009 10.500000000000002 1.1399999900000002 5.1500000000000012 2.9000000500000005 1.4900000100000004 2.5000000000000004 6.5000000000000009 3.5000000000000004 68.500000000000014 1.7350000150000002 1.7799999850000001 3.5000000000000004 1.8100000000000003 4.5000000000000009
decision_type=2 2 8 2 2 2 2 2 2 2 10 2 2 10 2 2 2 2 2 10 2 2 2 2 2 2 2 2 2 10 2 2 10 2 2 2 2 2 2 10 2 10 2 2 2 2 2 2 2 2 2 2 2 2 2 2 2 2 2 2 2 2
left_child=4 8 3 30 7 21 9 25 11 10 15 20 44 -9 31 -6 35 -10 19 -19 -2 -5 51 28 -22 40 27 45 53 -16 -3 32 33 -15 49 -4 -37 38 41 50 -1 57 43 -17 47 -27 -40 -13 -28 -35 55 -23 -50 -21 -55 -30 -14 -11 -59 -26 -43 -42
right_child=1 2 16 5 6 -7 -8 13 17 37 -12 12 56 14 29 42 -18 18 -20 23 24 22 -24 -25 59 26 48 -29 39 -31 -32 -33 -34 34 -36 36 -38 -39 46 -41 61 60 -44 -45 -46 -47 -48 -49 52 -51 -52 -53 -54 54 -56 -57 -58 58 -60 -61 -62 -63
leaf_value=-4.91236507512861e-05 5.0672967888757232e-05 0.00066816459093291432 8.466368780606987e-05 0.0021727113029438951 -0.0071292449907244503 -1.2713464053526318e-06 3.3172134317787829e-05 -6.8096824206222118e-05 1.7683932958055483e-05 -0.00096981635201092656 -0.00020011651197745364 -1.6436421763020252e-06 5.0353373160955217e-05 -8.1833683734595648e-05 -0.0010622905970950368 -0.0044297221598201568 5.5353978198390639e-05 -2.75827287657557e-05 7.7714451745476782e-05 -5.0081517521502747e-05 8.1975267468905301e-05 0.0034848024380483809 0.0071724531459040012 -7.3421648370393318e-05 0.00015555862400854555 -0.00036912379622680054 -3.4914010846744155e-05 -6.0730172965761244e-05 -0.0004720311726320717 -0.00030149038333733178 0.0012736657701320185 -3.4233107251360857e-05 -0.00013241918540829602 -5.5858651486989728e-05 -5.1562722476396023e-05 0.00036433023763678883 4.8696011925704012e-05 5.7157307754474257e-05 -8.9629848514940743e-05 -9.7602347158721263e-05 4.8132140099696085e-05 -0.00032729619887852149 -0.0017603120550654658 -0.0016715339197329933 3.6902460921798525e-05 -0.0021253789079657614 -0.0003373862024643998 -4.4522745760890106e-05 -5.442062780065836e-05 -0.00060898547868444726 4.108978590234964e-05 0.004928325713026916 3.4891436454211201e-05 -0.00049101531248439548 -5.6225126872514391e-05 -0.00074501794936085181 0.00012123529050722044 0.00017172990938084745 -0.00068769382992159148 0.00036867992380215615 -0.00058877977582265308 1.5197978536480433e-07
leaf_weight=197796 1421921 8441 24718 327 150 365 59459 149063 103664 3860 2885 956705 267458 11116 5066 471 63193 30963 54352 13592 68524 597 270 21321 16673 29682 1664443 50278 40488 3461 5231 24584 34276 2052 6996 91366 14675 7985 24619 6348 438397 55798 303 152 311127 246 23413 614465 90821 29111 1927 518 261648 10203 6822 8768 171925 1034 2537 35874 8677 438259
leaf_count=197796 1421921 8441 24718 327 150 365 59459 149063 103664 3860 2885 956705 267458 11116 5066 471 63193 30963 54352 13592 68524 597 270 21321 16673 29682 1664443 50278 40488 3461 5231 24584 34276 2052 6996 91366 14675 7985 24619 6348 438397 55798 303 152 311127 246 23413 614465 90821 29111 1927 518 261648 10203 6822 8768 171925 1034 2537 35874 8677 438259
internal_value=2.43743e-07 3.22232e-05 0.000282188 0.00124341 -3.82942e-05 0.003505 -0.000213645 -2.8533e-05 1.96322e-05 -0.000324921 -0.00114127 2.8554e-05 7.26284e-06 -0.000154556 -0.000265027 -0.00366472 0.000204137 -9.58987e-05 -0.000156347 -0.000246937 6.059e-05 0.00425253 0.00474358 -0.000308981 0.000177061 -1.79744e-05 -3.26439e-05 -0.000181191 -0.000365957 -0.000753492 0.000899833 -0.000226509 -0.000283085 -0.000387888 -0.000477044 0.00027604 0.00032065 -0.000299644 -0.000323398 -0.000455134 1.06576e-05 -0.000398881 -0.00310351 -0.00375678 -9.26995e-06 -0.00038356 -0.000210398 -1.84131e-05 -2.67367e-05 -0.000572564 -0.000499477 0.00415543 1.18783e-05 -0.00019839 -0.000316793 -0.000520625 7.80886e-05 -0.000714655 -0.000438844 0.000301057 -0.000362486 2.41458e-05
internal_weight=8.00146e+06 4.37282e+06 209701 15749 3.62864e+06 2077 191343 3.4373e+06 4.16312e+06 131884 3961 3.86467e+06 2.32168e+06 265725 116662 1076 193952 298448 194784 140432 1.54299e+06 1712 1385 109469 121071 3.17157e+06 2.09712e+06 80206 88148 8527 13672 108135 83551 49275 38159 130759 106041 127923 119938 57531 1.07445e+06 71906 926 623 1.8823e+06 29928 48032 1.57117e+06 2.01691e+06 31163 51183 1115 352469 30617 17025 49256 439383 7431 3571 52547 64475 876656
internal_count=8001459 4372821 209701 15749 3628638 2077 191343 3437295 4163120 131884 3961 3864672 2321680 265725 116662 1076 193952 298448 194784 140432 1542992 1712 1385 109469 121071 3171570 2097118 80206 88148 8527 13672 108135 83551 49275 38159 130759 106041 127923 119938 57531 1074452 71906 926 623 1882297 29928 48032 1571170 2016912 31163 51183 1115 352469 30617 17025 49256 439383 7431 3571 52547 64475 876656
is_linear=0
shrinkage=0.05


Tree=2
num_leaves=63
num_cat=0
split_feature=0 7 4 4 3 0 2 4 2 3 0 2 2 4 2 3 7 2 7 3 2 0 7 4 6 7 4 7 6 2 0 0 6 4 6 4 0 0 7 6 6 2 6 2 0 4 4 4 7 0 3 0 2 6 7 7 7 7 4 6 0 4
split_gain=3.55989 4.25414 3.28825 1.77348 2.01749 1.73187 1.84255 1.61145 1.40896 1.08469 1.08592 1.00069 0.998182 0.985559 0.742452 0.648414 0.90957 0.733439 0.66279 0.624648 0.615796 0.608236 0.478667 0.464515 0.460193 0.435532 0.381821 0.365435 0.377161 0.360488 0.305656 0.28757 0.289303 0.28326 0.282055 0.254648 0.369109 0.250432 0.235756 0.228638 0.214125 0.208664 0.220883 0.192816 0.190533 0.183731 0.183367 0.179503 0.184049 0.175813 0.174988 0.154503 0.152779 0.147611 0.146995 0.147064 0.14517 0.141576 1.05375 0.370552 0.3803 0.155986
threshold=1.8999999900000002 1.0000000180025095e-35 10.500000000000002 10.500000000000002 71.500000000000014 2.5499999500000006 4.5000000000000009 2.5000000000000004 4.5000000000000009 73.500000000000014 4.1000000000000005 5.5000000000000009 8.5000000000000018 1.5000000000000002 8.5000000000000018 75.500000000000014 1.0000000180025095e-35 5.5000000000000009 0.95889067777979975 75.500000000000014 6.5000000000000009 2.8500000000000001 0.99026274744992471 1.5000000000000002 83.500000000000014 1.4319487946660236 10.500000000000002 1.544090533338103 6.5000000000000009 5.5000000000000009 2.9000000500000005 1.5099999900000001 2.5000000000000004 7.5000000000000009 119.50000000000001 10.500000000000002 1.4800000100000001 2.1250000000000004 0.48779455518928755 26.500000000000004 77.500000000000014 3.5000000000000004 27.500000000000004 4.5000000000000009 2.8500000000000001 2.5000000000000004 11.500000000000002 1.5000000000000002 1.000000733022288 1.8350000250000003 62.500000000000007 1.1699999800000003 4.5000000000000009 34.500000000000007 0.34369283071084683 1.3385648523990981 0.30382765282286595 1.0000000180025095e-35 10.500000000000002 78.500000000000014 1.2550000000000001 2.5000000000000004
decision_type=2 10 2 2 2 2 2 2 2 2 2 2 2 2 2 2 10 2 10 2 2 2 10 2 2 10 2 10 2 2 2 2 2 2 2 2 2 2 10 2 2 2 2 2 2 2 2 2 8 2 2 2 2 2 10 10 10 10 2 2 2 2
left_child=8 2 -2 7 20 37 -7 13 23 -8 24 34 15 14 29 17 35 31 -19 52 -5 -15 -14 -1 30 51 -18 28 -20 44 -11 32 -10 38 39 -17 -37 -4 -13 43 -28 -23 -43 -9 -3 -25 -22 -33 -49 -38 -39 -24 -6 -40 -31 -56 -48 58 -34 60 -60 -59
right_child=1 3 5 4 19 6 9 11 12 10 -12 33 22 21 -16 16 26 18 27 -21 46 41 25 45 -26 -27 40 -29 -30 54 -32 47 57 -35 -36 36 49 50 53 -41 -42 42 -44 -45 -46 -47 56 48 -50 -51 -52 -53 -54 -55 55 -57 -58 61 59 -61 -62 -63
leaf_value=3.6684540776514981e-05 4.9009688142098559e-05 3.479609230102036e-05 0.00061142790718898669 3.7000822060559061e-05 0.00017153183374423359 0.00028112043002339069 0.001212547619128726 6.1837168893320585e-06 -9.1786428974398377e-06 0.002557800044924508 0.0063091409491540509 -8.8509921764107861e-05 -0.00016693386211473292 9.7141508689069217e-05 -0.00035027209055255043 -4.9256076564491017e-06 -5.6231022243466804e-05 -5.5042013888302332e-05 -0.00035618441924289344 0.00013327610578800123 9.0119679430666604e-05 0.00016196252120308195 5.0123086476798413e-05 -0.0001594559247542386 0.00039577660660644804 -0.00029396079166385146 -0.00018165238336606928 -0.0001108884664511606 -3.3105484980446247e-05 5.0484140898610155e-05 0.0040338390558383027 7.2469839705237098e-06 1.5140646044988806e-05 2.5367052472272786e-05 3.4956732039360562e-05 -0.0016920324827690361 -0.00077068390131485628 6.0306730308493077e-05 -0.00027362667040169874 -6.2503095908733667e-05 0.000265034349990191 0.00043633613382537055 5.7276339101928088e-05 -3.2466409469794406e-05 7.2628018806262967e-05 -1.7383644628834988e-05 -2.2481604687688739e-05 -1.7260108416026025e-05 -7.4705198093238899e-05 -0.00018274918567020817 0.0011008317873309951 -0.0010908865621821356 0.00031389824474619343 9.8903807247807714e-06 -9.2359682123801563e-05 5.8204753876836893e-05 -0.00060789646826196395 -0.0001282270686351813 -0.0042670066901235506 0.00044574557021925489 -0.0016706339172630298 -5.8699585203613407e-05
leaf_weight=524999 16327 911626 9558 332560 22880 1192 923 819742 144166 933 259 34490 7542 80967 12216 1372 139221 127151 52424 128565 1618 14585 317 23240 174 3584 138181 42426 10914 37817 562 359390 3815 17414 313594 906 4806 436 57938 234597 2736 29945 4409 532173 524166 1093571 1298 400993 213764 1729 5515 4630 106847 4986 86814 19944 5751 147038 179 154 665 178725
leaf_count=524999 16327 911626 9558 332560 22880 1192 923 819742 144166 933 259 34490 7542 80967 12216 1372 139221 127151 52424 128565 1618 14585 317 23240 174 3584 138181 42426 10914 37817 562 359390 3815 17414 313594 906 4806 436 57938 234597 2736 29945 4409 532173 524166 1093571 1298 400993 213764 1729 5515 4630 106847 4986 86814 19944 5751 147038 179 154 665 178725
internal_value=2.31556e-07 3.0612e-05 0.000572821 2.61264e-05 0.000105958 0.00101023 0.0019319 1.33206e-05 -3.63795e-05 0.00262208 0.00329688 -1.70351e-05 -6.47019e-05 4.883e-05 3.80282e-05 -6.15013e-05 -0.000130693 -4.96134e-05 -0.000131967 0.000211382 2.61574e-05 0.000181255 -0.000457132 -2.10539e-06 0.00282942 -0.000713688 -0.000114959 -0.000224448 -0.000300514 4.10297e-05 0.00311267 -3.63747e-05 -6.82833e-05 -0.000160371 -8.37296e-06 -0.000630843 -0.000746252 0.000769966 -0.000193574 -1.69376e-05 -0.00017298 0.000320416 0.000387688 -9.03067e-06 4.86074e-05 -2.03401e-05 -0.000389913 -2.08243e-05 -3.7235e-05 -0.000615131 0.0010246 -0.00101777 0.000288789 -0.000251161 -3.42253e-05 -6.4232e-05 -0.000500098 -9.40591e-05 -0.000363258 -0.00180974 -0.00222129 -9.00819e-05
internal_weight=8.00146e+06 4.37282e+06 35879 4.33694e+06 599519 19552 4043 3.73742e+06 3.62864e+06 2851 1928 2.01493e+06 1.98683e+06 1.72249e+06 1.59258e+06 1.97076e+06 288951 1.6818e+06 232915 258292 341227 129906 16073 1.64181e+06 1669 8531 280138 105764 63338 1.58037e+06 1495 1.44889e+06 474742 114828 1.90011e+06 8813 7441 15509 97414 1.58651e+06 140917 48939 34354 1.35192e+06 1.43579e+06 1.11681e+06 8667 974147 614757 6535 5951 4947 129727 62924 144575 106758 7049 330576 4813 998 844 325763
internal_count=8001459 4372821 35879 4336942 599519 19552 4043 3737423 3628638 2851 1928 2014934 1986828 1722489 1592583 1970755 288951 1681804 232915 258292 341227 129906 16073 1641810 1669 8531 280138 105764 63338 1580367 1495 1448889 474742 114828 1900106 8813 7441 15509 97414 1586512 140917 48939 34354 1351915 1435792 1116811 8667 974147 614757 6535 5951 4947 129727 62924 144575 106758 7049 330576 4813 998 844 325763
is_linear=0
shrinkage=0.05


Tree=3
num_leaves=63
num_cat=0
split_feature=2 1 5 1 5 1 7 6 7 8 5 8 5 5 5 5 8 5 3 7 2 6 6 8 5 5 1 3 3 3 3 6 6 6 5 1 7 3 7 6 6 8 8 8 6 6 3 1 6 6 7 6 6 1 3 5 7 8 1 6 7 1
split_gain=3.01091 2.1149 1.40403 1.3835 1.25662 1.56691 1.38025 0.916743 0.791732 1.2729 3.05649 0.89364 1.53796 0.707372 0.635194 0.59105 0.561907 3.38069 0.780937 0.534942 0.400834 0.377277 0.373634 0.366024 1.57312 1.17212 0.355299 0.317863 0.440812 0.307629 0.376838 0.294789 0.755739 0.258384 0.607746 0.747157 0.588677 0.521826 0.494916 0.272527 0.256712 0.320131 0.293499 0.238663 0.238012 0.246237 0.226149 0.219313 0.197277 0.178418 0.25754 0.178149 0.158909 0.156033 0.151339 0.150554 0.148578 0.242916 0.143547 0.143418 0.143302 0.141597
threshold=5.5000000000000009 8.2016000000000009 75.500000000000014 13.550450000000001 94.500000000000014 45.886000000000003 0.61946324522384733 6.5000000000000009 1.0000000180025095e-35 3.5000000000000004 118.00000000000001 2.5000000000000004 118.00000000000001 122.50000000000001 122.50000000000001 75.500000000000014 1.5000000000000002 118.00000000000001 72.500000000000014 1.7986892393269012 8.5000000000000018 68.500000000000014 5.0000000000000009 1.0000000180025095e-35 118.00000000000001 122.50000000000001 17.499750000000002 71.500000000000014 76.500000000000014 76.500000000000014 71.500000000000014 26.500000000000004 68.500000000000014 6.5000000000000009 87.000000000000014 41.809500000000007 0.8830744350982066 75.500000000000014 1.7113256058111452 3.5000000000000004 88.500000000000014 3.5000000000000004 1.0000000180025095e-35 3.5000000000000004 26.500000000000004 8.5000000000000018 75.500000000000014 10.688250000000002 5.0000000000000009 75.500000000000014 0.85533166907204594 76.500000000000014 6.5000000000000009 63.76400000000001 48.500000000000007 118.00000000000001 0.89075448644226929 3.5000000000000004 4.7481500000000016 68.500000000000014 0.43301740895977653 19.201750000000001
decision_type=2 2 2 2 2 2 10 2 8 2 2 2 2 2 2 2 2 2 2 10 2 2 2 2 2 2 2 2 2 2 2 2 2 2 2 2 10 2 10 2 2 2 2 2 2 2 2 2 2 2 10 2 2 2 2 2 10 2 2 2 10 2
left_child=3 58 -3 8 5 6 60 19 9 11 -11 16 -13 51 -12 31 23 -18 -19 20 47 22 -10 29 -25 -26 -22 49 40 30 -1 52 -33 34 35 36 -17 -35 39 -38 41 42 -29 -30 45 -24 59 -8 -28 50 54 -14 -5 -39 -23 -44 57 -49 -2 -32 -4 -50
right_child=1 2 4 15 -6 -7 7 -9 21 10 14 12 13 -15 -16 33 17 18 -20 -21 26 27 44 24 25 -27 48 28 43 -31 46 32 -34 37 -36 -37 38 53 -40 -41 -42 -43 55 -45 -46 -47 -48 56 61 -51 -52 -53 -54 -55 -56 -57 -58 -59 -60 -61 -62 -63
leaf_value=4.5657318623562932e-05 2.2103452389445998e-05 -3.6716816861975365e-05 -4.9192683579678667e-05 -7.9393792902743555e-06 4.2827163952542801e-06 -8.2754115109523666e-05 -0.00027353117644581692 -0.00014826241408529833 4.0650136652936951e-05 7.4550944096888391e-05 0.0018337683976692961 8.2416738411072689e-05 -0.0015173173034143663 0.0001380450335393207 -1.6258843473993832e-05 -9.7844549603781533e-05 7.9823099931742051e-05 0.00199415384744834 0.0051629036920762955 -0.00011719948736536515 -0.00047275493794814518 -0.00058755470308405485 5.0319679672117572e-06 1.2678813681258957e-05 -0.0055504486765752302 0.00015860771336146209 -0.00050588216111302953 0.00014146993949680129 -3.3187224331833836e-05 -0.00013882920674918801 2.222784475299862e-05 -0.00014179462911946168 8.2780172449121186e-06 2.070878966308158e-05 -1.0024943058071526e-05 -4.3692817697223464e-05 -0.00030869141442550242 -8.3077242264350756e-05 -5.7075287221712158e-05 -0.00059645395047497763 3.6398464914244763e-05 0.00029302844743557218 4.6479287196396161e-05 0.00022174460950391453 -2.7958634650846849e-05 4.705219516750646e-05 0.00017439272317227504 -0.00022494563614813761 -0.0016003993266813104 2.528246391022361e-05 -0.00048409350594564644 -0.00072524834404713101 4.2238880330112048e-05 -0.0002103577163763977 4.8996932172104863e-05 -0.00017578383314225223 -0.0006274723303250901 -0.00064790837697607155 -6.2158209869054762e-05 0.00063590988532114109 -0.00025294682962215368 -0.0010538567467981218
leaf_weight=10538 179096 96451 19865 1214471 36227 51414 6206 15452 1004039 8991 4306 11753 2733 1090 520 23192 3421 357 427 6122 3574 1042 2378079 3913 234 146 1247 183088 99686 5357 1063 141609 205816 140366 75528 48748 13022 72745 8093 22348 99643 27215 41967 10112 451030 408532 5518 6682 1599 452509 4185 959 181341 35992 8987 9309 47230 6900 70418 9121 15257 4578
leaf_count=10538 179096 96451 19865 1214471 36227 51414 6206 15452 1004039 8991 4306 11753 2733 1090 520 23192 3421 357 427 6122 3574 1042 2378079 3913 234 146 1247 183088 99686 5357 1063 141609 205816 140366 75528 48748 13022 72745 8093 22348 99643 27215 41967 10112 451030 408532 5518 6682 1599 452509 4185 959 181341 35992 8987 9309 47230 6900 70418 9121 15257 4578
internal_value=2.19978e-07 -0.000110704 -0.000196034 8.70092e-06 -0.000265142 -0.000317582 -0.000407207 -0.000502251 2.26117e-05 0.000189104 0.000619385 8.4121e-05 -0.000225173 -0.000981153 0.00163443 -2.47489e-05 0.000211672 0.000758513 0.00371999 -0.000567262 -0.000602578 2.03472e-05 1.40022e-05 0.000147603 -0.00028559 -0.00335697 -0.000882347 4.90475e-05 7.80249e-05 0.000206459 0.000276951 -1.16784e-05 -5.2891e-05 -7.65291e-05 -0.000120292 -0.000192459 -0.00030126 -4.29856e-05 -0.000409802 -0.00049051 0.000104693 0.000130708 0.000111859 -9.70892e-06 5.7383e-06 1.11924e-05 0.000432178 -0.000556667 -0.00107953 1.98034e-05 -0.000154624 -0.00131158 -1.42032e-06 -0.000125207 -1.714e-05 6.1281e-06 -0.000585562 -0.000439821 -1.67693e-06 0.000571854 -0.000137704 -0.00119534
internal_weight=8.00146e+06 568318 318804 7.43314e+06 222353 186126 134712 99590 5.24987e+06 70447 13817 56630 16535 4782 4826 2.18327e+06 40095 4205 784 84138 78016 5.17942e+06 4.24168e+06 35890 4293 380 10998 937743 471020 31597 26240 1.74324e+06 347425 440034 190931 115403 66655 249103 43463 35370 361222 261579 234364 109798 3.23764e+06 2.78661e+06 15702 67018 7424 466723 14214 3692 1.39581e+06 108737 10029 51276 60812 13582 249514 10184 35122 6177
internal_count=8001459 568318 318804 7433141 222353 186126 134712 99590 5249870 70447 13817 56630 16535 4782 4826 2183271 40095 4205 784 84138 78016 5179423 4241680 35890 4293 380 10998 937743 471020 31597 26240 1743237 347425 440034 190931 115403 66655 249103 43463 35370 361222 261579 234364 109798 3237641 2786611 15702 67018 7424 466723 14214 3692 1395812 108737 10029 51276 60812 13582 249514 10184 35122 6177
is_linear=0
shrinkage=0.05


Tree=4
num_leaves=63
num_cat=0
split_feature=0 5 7 0 5 5 5 2 2 1 1 5 5 3 0 1 1 3 0 0 2 7 0 3 1 1 5 1 0 7 0 7 7 7 5 5 1 0 0 3 5 1 7 7 7 3 0 3 7 1 0 0 0 7 2 5 0 1 2 0 0 0
split_gain=3.12641 4.39585 4.70096 3.80138 2.10609 1.83115 1.82778 1.35746 1.24654 1.14363 1.02646 0.998929 0.954809 0.937162 0.862778 3.00847 0.760164 0.666166 0.669454 0.663173 0.540133 0.535707 0.492225 0.488697 0.400659 0.377158 0.432944 0.368278 0.354678 0.335746 0.325505 0.325182 0.321302 0.533533 0.353708 0.412775 0.504817 0.281425 0.277383 0.268939 0.378779 0.288221 0.28807 0.326754 0.260581 0.258311 0.254495 0.242418 0.226884 0.233517 0.233071 0.225324 0.22339 0.214757 0.211857 0.182245 0.179726 0.163542 0.161993 0.161887 0.19138 0.158173
threshold=1.8999999900000002 118.00000000000001 1.0000000180025095e-35 2.6500000000000008 118.00000000000001 122.50000000000001 122.50000000000001 5.5000000000000009 5.5000000000000009 5.9302000000000001 11.921650000000001 75.500000000000014 94.500000000000014 71.500000000000014 1.4900000100000004 0.22415000000000004 45.886000000000003 73.500000000000014 4.1000000000000005 1.2350000150000002 8.5000000000000018 0.34862217261225964 1.9350000000000003 72.500000000000014 41.809500000000007 9.5239000000000011 75.500000000000014 16.172750000000004 1.8350000250000003 1.4494163633325805 2.1250000000000004 0.91299535194194059 0.99026274744992471 1.6579993573842708 75.500000000000014 87.000000000000014 73.189300000000017 1.4500000250000002 1.5199999900000003 66.500000000000014 87.000000000000014 42.826450000000001 0.53915039877386672 1.4494163633325805 0.04908272097282676 75.500000000000014 1.8650000100000002 66.500000000000014 0.83520010896725694 14.026200000000001 2.5999999500000004 5.1500000000000012 1.1000000100000003 1.4319487946660236 3.5000000000000004 122.50000000000001 1.8100000000000003 53.064050000000009 4.5000000000000009 1.7350000150000002 1.7799999850000001 2.9000000500000005
decision_type=2 2 8 2 2 2 2 2 2 2 2 2 2 2 2 2 2 2 2 2 2 10 2 2 2 2 2 2 2 10 2 10 10 10 2 2 2 2 2 2 2 2 10 10 10 2 2 2 10 2 2 2 2 10 2 2 2 2 2 2 2 2
left_child=4 8 3 30 7 14 17 27 25 -10 -9 -11 16 -4 15 19 21 -5 61 -6 32 -13 -15 -16 31 -2 -27 38 44 48 -3 -22 -12 34 -34 36 47 -21 58 40 41 42 -28 -44 59 55 -30 52 50 -50 -23 -52 -36 -33 -29 -24 -46 -47 -1 -25 -61 -19
right_child=1 2 13 6 5 -7 -8 10 9 11 20 12 -14 22 23 -17 -18 18 -20 37 24 29 45 28 -26 26 39 54 46 -31 -32 53 33 -35 35 -37 -38 -39 -40 -41 -42 -43 43 -45 56 57 -48 -49 49 -51 51 -53 -54 -55 -56 -57 -58 -59 -60 60 -62 -63
leaf_value=-7.0801807002525305e-06 3.6831661221648805e-05 0.00058799369016637563 3.3574208580781737e-05 0.0021286943829356589 -0.0063666927006949363 3.4812336750543437e-05 -0.00013647503459551821 -2.9044883495342781e-05 3.4741825350137849e-05 1.5205259843873026e-05 -9.4744020105017111e-05 -3.5224723408213168e-05 5.8823017460372045e-05 6.1899283092607419e-05 4.9365163690154468e-05 -0.00018463805270666964 -2.8812961688585094e-05 0.0032369408686900719 0.0068408197343282646 -0.0033908234232828101 -0.00027014214632347159 -0.00017463046589502885 0.00042151946662371777 -0.00087628983341082791 -0.00021201797795724893 1.4019002310773706e-05 -2.5162053245739998e-05 -1.765546665653597e-05 -8.5140387291942197e-05 -7.22633891017973e-05 0.001089961064768637 -0.0012234022587909535 -8.7751721843894832e-05 -9.8555614793493113e-05 0.00012809285064308199 -3.259205444705269e-05 -4.9243468459927109e-05 -0.001533053898219505 6.9084509583141884e-06 3.1747942368056317e-05 1.9300383163071738e-05 -2.8110952456551126e-05 -0.00037014837009968901 6.1400382539000592e-06 -0.00030999710657735009 0.00027176297743954422 -0.00031777976906558186 -2.1338891734814738e-05 -0.00029792905855066741 -0.00062640554109547714 -0.00050765212156561536 0.0001372040922033593 -0.00064334711341621029 -0.00043186693590677172 -6.3730549787009878e-05 0.00013104902823345369 -0.00055745453814357786 3.1957857985378964e-05 -5.7898629251085476e-05 0.00014456360414947589 -0.0006435595786211803 0.004477875932525798
leaf_weight=313338 2460458 8441 67161 458 150 59459 365 124552 124405 53841 48429 9965 21403 24231 10532 2885 19384 547 223 623 1993 10564 47415 3930 4965 1252477 11718 489143 23836 6078 5231 3556 9544 31978 974 5685 5390 303 1545943 42250 34864 21951 34006 6948 54176 40424 23196 1837 6906 24988 19458 1456 25693 1129 509215 6094 8487 8627 313931 1080 2686 484
leaf_count=313338 2460458 8441 67161 458 150 59459 365 124552 124405 53841 48429 9965 21403 24231 10532 2885 19384 547 223 623 1993 10564 47415 3930 4965 1252477 11718 489143 23836 6078 5231 3556 9544 31978 974 5685 5390 303 1545943 42250 34864 21951 34006 6948 54176 40424 23196 1837 6906 24988 19458 1456 25693 1129 509215 6094 8487 8627 313931 1080 2686 484
internal_value=2.08979e-07 2.86798e-05 0.000252047 0.00108282 -3.41008e-05 -0.000195551 0.00307584 -2.51133e-05 1.74285e-05 -8.10261e-05 -0.000133667 -0.000163776 -0.000243946 0.000184588 -0.000299409 -0.00102618 -0.000309535 0.00376071 0.00435678 -0.00328253 -0.000225972 -0.000378055 0.000264579 -0.000276905 -0.000552182 2.50316e-05 4.3556e-06 -1.60183e-05 -0.000306177 -0.000427246 0.00078005 -0.00080509 -0.00019665 -0.000257503 -0.000360975 -0.000426859 -0.000492989 -0.00278294 -4.47015e-06 -7.54086e-05 -0.000116759 -0.000180327 -0.000243762 -0.00030631 -0.000377234 0.000312465 -0.000199877 -0.0005769 -0.000461293 -0.000555281 -0.000366063 -0.000462758 -0.000615171 -0.00103266 -4.11562e-05 0.000388439 -0.000343512 0.000229586 -3.25134e-05 -0.000651805 -0.000417544 0.00381949
internal_weight=8.00146e+06 4.37282e+06 209701 15749 3.62864e+06 191343 2077 3.4373e+06 4.16312e+06 298448 265725 174043 120202 193952 131884 3961 98799 1712 1254 1076 141173 79415 126791 127923 11643 3.86467e+06 1.40421e+06 3.17157e+06 117391 69450 13672 6678 129530 81101 49123 39579 33894 926 2.17321e+06 151737 109487 74623 52672 40954 70359 102560 47032 28504 63372 31894 31478 20914 26667 4685 998358 53509 62663 49051 627269 7696 3766 1031
internal_count=8001459 4372821 209701 15749 3628638 191343 2077 3437295 4163120 298448 265725 174043 120202 193952 131884 3961 98799 1712 1254 1076 141173 79415 126791 127923 11643 3864672 1404214 3171570 117391 69450 13672 6678 129530 81101 49123 39579 33894 926 2173212 151737 109487 74623 52672 40954 70359 102560 47032 28504 63372 31894 31478 20914 26667 4685 998358 53509 62663 49051 627269 7696 3766 1031
is_linear=0
shrinkage=0.05


Tree=5
num_leaves=63
num_cat=0
split_feature=0 5 1 0 5 5 5 2 2 1 1 5 5 3 3 0 1 0 1 0 1 2 3 0 6 1 5 5 6 1 5 6 5 0 0 0 3 1 2 0 1 0 0 6 0 6 3 1 0 6 6 2 6 3 3 1 6 1 5 3 1 0
split_gain=2.94057 4.10101 4.33763 3.33768 2.02695 1.90997 1.63721 1.2593 1.05363 0.973024 0.91091 0.809549 0.866241 0.778238 0.774992 0.719717 0.663755 0.642488 2.51898 0.615654 0.536472 0.669221 0.463371 0.409286 0.400023 0.396562 0.353115 0.470684 0.453556 0.34329 0.391389 0.370488 0.302442 0.274794 0.249626 0.253089 0.248509 0.236173 0.22876 0.21905 0.215491 0.215351 0.208944 0.207564 0.189004 0.186055 0.182295 0.152538 0.150781 0.150551 0.135248 0.147659 0.132602 0.130519 0.130416 0.129134 0.128406 0.128109 0.126588 0.12291 0.121813 0.113487
threshold=1.8999999900000002 118.00000000000001 1.0000000180025095e-35 2.6500000000000008 107.00000000000001 122.50000000000001 122.50000000000001 5.5000000000000009 5.5000000000000009 5.7637000000000009 11.921650000000001 75.500000000000014 87.000000000000014 72.500000000000014 71.500000000000014 4.1000000000000005 45.886000000000003 1.4900000100000004 0.097250000000000017 1.2550000000000001 43.820250000000009 8.5000000000000018 72.500000000000014 1.9350000000000003 71.500000000000014 10.880250000000002 52.500000000000007 94.500000000000014 6.5000000000000009 8.2016000000000009 52.500000000000007 35.500000000000007 87.000000000000014 2.1250000000000004 1.8350000250000003 1.8650000100000002 75.500000000000014 42.826450000000001 3.5000000000000004 4.8000000950000006 1.0000000180025095e-35 1.5499999750000002 1.1000000100000003 3.5000000000000004 1.4500000250000002 5.0000000000000009 76.500000000000014 24.712950000000003 1.8100000000000003 26.500000000000004 5.0000000000000009 4.5000000000000009 6.5000000000000009 71.500000000000014 71.500000000000014 78.437150000000017 76.500000000000014 0.33845000000000008 122.50000000000001 76.500000000000014 2.0186000000000006 2.9000000500000005
decision_type=2 2 2 2 2 2 2 2 2 2 2 2 2 2 2 2 2 2 2 2 2 2 2 2 2 2 2 2 2 2 2 2 2 2 2 2 2 2 2 2 2 2 2 2 2 2 2 2 2 2 2 2 2 2 2 2 2 2 2 2 2 2
left_child=4 8 3 33 7 13 17 25 29 -10 -9 -11 16 -5 -4 61 24 18 19 -6 21 26 -19 -16 39 41 -12 28 42 -2 55 32 37 46 40 57 58 43 49 45 59 50 -28 -32 56 -13 53 -38 -42 -27 -1 -52 -47 -3 -35 -31 -21 -36 -25 -24 -43 -15
right_child=1 2 14 5 6 -7 -8 10 9 11 20 12 -14 15 23 -17 -18 22 -20 44 -22 -23 34 36 -26 38 27 -29 -30 30 31 -33 -34 54 35 -37 47 -39 -40 -41 48 60 -44 -45 -46 52 -48 -49 -50 -51 51 -53 -54 -55 -56 -57 -58 -59 -60 -61 -62 -63
leaf_value=1.2623451117231116e-05 3.5177147421499818e-05 -0.00012539954345761593 4.0472199911901589e-05 0.0016644056159053847 -0.0056587350880597104 -0.0002198701754050199 2.5891611622094927e-05 -3.0878528669263265e-05 3.361028708519247e-05 1.0796808037914455e-05 -7.9182155126772391e-05 -0.00026374295116170129 6.1761708784886462e-05 0.0031397806284094729 6.6104503548958799e-05 0.0066129197963342382 -2.145987091806541e-05 4.2670272945440836e-05 -0.00017488299857671777 -0.0034112251459331058 -8.8618814215680146e-05 -0.000760543924793793 -0.00047171343098593109 0.00039658489371029919 0.00011167547122382415 -3.4260966071851311e-06 6.2046042895645486e-05 -3.7458735259572498e-05 -8.2780357691213959e-05 1.8272421977522058e-05 -9.7565951437533744e-05 5.0077655763433825e-05 2.6886739400680177e-06 -0.00018697567450414812 0.00026658184445549842 -0.00032716423749811543 0.00026904419172863971 -2.972009159685505e-05 -5.9317795629128392e-05 -4.2068444667011279e-05 -0.00029934136007490599 3.2348012427095495e-05 -0.00048885489854336042 -0.00028802727187239038 -0.0014653968180868369 -0.0004787242241504671 0.00012065675771671339 7.4267336763224497e-05 -0.00052455153639228947 -6.3484210176735612e-05 -1.1969654925399078e-05 -6.8872239355474311e-05 -0.00024612825304019852 0.00075160102139143091 0.0010847111977004675 -4.0522091926257773e-05 -0.001698532622237371 -0.00013213325991133089 0.00015344708874310338 -0.00091812923830973084 -6.3787012172489376e-07 0.0041580945825936263
leaf_weight=165387 2364577 455 67185 406 179 407 59504 124463 122865 54135 21945 18991 22029 585 24315 245 19258 10844 3093 437 51877 6989 4480 47276 4458 481891 1807 12295 9901 1227702 22785 48971 38998 210 2223 23149 35048 23171 628817 4616 54931 406849 36235 38434 317 44578 1759 14094 8595 133187 230151 225922 7104 6276 5046 101081 146 21493 6037 2351 896853 514
leaf_count=165387 2364577 455 67185 406 179 407 59504 124463 122865 54135 21945 18991 22029 585 24315 245 19258 10844 3093 437 51877 6989 4480 47276 4458 481891 1807 12295 9901 1227702 22785 48971 38998 210 2223 23149 35048 23171 628817 4616 54931 406849 36235 38434 317 44578 1759 14094 8595 133187 230151 225922 7104 6276 5046 101081 146 21493 6037 2351 896853 514
internal_value=-4.11772e-07 2.71912e-05 0.000242854 0.00103671 -3.37031e-05 0.0028653 -0.000191914 -2.48706e-05 1.63215e-05 -7.42629e-05 -0.000129468 -0.000149926 -0.000221813 0.00358283 0.000177763 0.00416235 -0.000284909 -0.000289921 -0.000900539 -0.00298066 -0.000216464 -0.00029084 -0.000270029 0.000250523 -0.000348529 -1.61071e-05 -0.000250896 -0.000313452 -0.00038423 2.33053e-05 4.60487e-06 -6.62833e-05 -0.000112465 0.000749776 -0.000298957 -0.000209556 0.00029429 -0.00016568 -3.81112e-05 -0.000375779 -0.000358506 -1.88979e-06 -0.000462687 -0.00021714 -0.00244802 -0.000397575 0.000573878 0.000213182 -0.000329812 -1.64309e-05 -2.61108e-05 -4.01571e-05 -0.000446753 0.000692318 0.0010339 1.37999e-05 -0.00298232 -9.476e-05 0.000369053 -0.000625355 9.6561e-06 0.00361604
internal_weight=7.99992e+06 4.37361e+06 209858 15903 3.62631e+06 2157 191742 3.43457e+06 4.16375e+06 298034 265512 175169 121034 1750 193955 1344 99005 132238 4172 1079 141049 89172 128066 126770 79747 3.16906e+06 82183 60238 47943 3.86572e+06 1.50114e+06 172359 123388 13746 117222 46865 102455 84390 1.2439e+06 75289 70357 1.92516e+06 38042 61219 900 70673 8490 49142 63526 615078 621460 456073 51682 6731 5256 1.32878e+06 583 23716 53313 6831 1.3037e+06 1099
internal_count=7999922 4373611 209858 15903 3626311 2157 191742 3434569 4163753 298034 265512 175169 121034 1750 193955 1344 99005 132238 4172 1079 141049 89172 128066 126770 79747 3169057 82183 60238 47943 3865719 1501142 172359 123388 13746 117222 46865 102455 84390 1243895 75289 70357 1925162 38042 61219 900 70673 8490 49142 63526 615078 621460 456073 51682 6731 5256 1328783 583 23716 53313 6831 1303702 1099
is_linear=0
shrinkage=0.05


Tree=6
num_leaves=63
num_cat=0
split_feature=0 5 7 0 5 5 5 2 4 2 4 1 4 5 5 1 0 1 0 0 6 0 6 1 7 2 6 5 5 4 4 0 1 5 5 6 1 1 0 1 6 0 6 7 7 7 7 0 6 1 6 0 0 6 7 1 7 1 1 2 6 7
split_gain=2.65386 3.70116 3.92496 3.03322 1.82946 1.70958 1.4855 1.13769 1.00242 0.948112 0.899147 0.820491 0.780009 0.667161 0.734491 0.630576 0.613866 2.27084 0.608817 0.571098 0.550087 0.567097 0.512532 0.484026 0.654508 0.651574 0.463172 0.409147 0.49811 0.407676 0.563726 0.667148 0.546867 0.35419 0.415589 0.395864 0.337646 0.373865 0.336609 0.333761 0.324898 0.314444 0.338523 0.292743 0.310701 0.277939 0.256618 0.245698 0.236222 0.232548 0.230442 0.228068 0.232637 0.228032 0.219369 0.202161 0.193283 0.259932 0.192819 0.187218 0.183793 0.182078
threshold=1.8999999900000002 118.00000000000001 1.0000000180025095e-35 2.6500000000000008 118.00000000000001 122.50000000000001 122.50000000000001 5.5000000000000009 2.5000000000000004 5.5000000000000009 1.5000000000000002 11.921650000000001 8.5000000000000018 48.000000000000007 85.500000000000014 5.9302000000000001 1.4900000100000004 0.22415000000000004 1.2550000000000001 2.3750000000000004 68.500000000000014 3.7999999750000004 68.500000000000014 43.820250000000009 0.99026274744992471 8.5000000000000018 6.5000000000000009 75.500000000000014 87.000000000000014 1.5000000000000002 2.5000000000000004 1.5199999900000003 9.1650000000000009 75.500000000000014 87.000000000000014 34.500000000000007 5.9302000000000001 42.826450000000001 1.3999999900000002 60.437750000000008 77.500000000000014 1.9350000000000003 77.500000000000014 0.33373171972428367 1.3385648523990981 0.34369283071084683 1.0210307968910695 2.1250000000000004 119.50000000000001 16.630300000000002 114.00000000000001 1.8350000250000003 1.8650000100000002 22.500000000000004 1.9021424530527105 39.876950000000001 0.99026274744992471 16.389350000000004 0.22415000000000004 3.5000000000000004 68.500000000000014 1.0210307968910695
decision_type=2 2 8 2 2 2 2 2 2 2 2 2 2 2 2 2 2 2 2 2 2 2 2 2 10 2 2 2 2 2 2 2 2 2 2 2 2 2 2 2 2 2 2 10 10 10 10 2 2 2 2 2 2 2 10 2 10 2 2 2 2 10
left_child=4 8 3 47 7 20 16 29 10 12 13 -9 48 -2 36 -11 17 18 -6 -12 -5 -22 -4 24 -13 26 27 -26 54 38 31 50 -32 -17 35 39 -15 43 -1 45 51 -24 55 -38 56 -35 -27 -3 49 -10 -31 58 -53 -51 -29 -43 -45 -58 -18 -21 -14 -59
right_child=1 2 22 5 6 -7 -8 11 9 15 19 23 60 14 -16 33 40 -19 -20 59 21 -23 41 -25 25 46 -28 28 -30 30 32 -33 -34 34 -36 -37 37 -39 -40 -41 -42 42 -44 44 -46 -47 -48 -49 -50 53 -52 52 -54 -55 -56 -57 57 61 -60 -61 -62 -63
leaf_value=-4.9285965604377361e-05 4.6591333226164518e-05 0.00054777054901329625 4.1315283120113562e-05 0.0015885534702943281 -0.005577965354886057 -0.0002066685027748463 2.4597027946239122e-05 -2.9520065451311805e-05 -9.5048195320829459e-06 -7.3681313404984285e-06 4.3174154779604081e-05 -0.00011115879676913664 3.66052290036183e-05 6.6536065890611518e-06 6.2236062408838966e-05 -5.2943442320676801e-05 -0.00058559805568866635 -0.00016033795668383405 -0.0023369374883104319 0.00013631715740013777 0.0032971648607907724 0.0056717739561352627 6.5435957887885276e-05 -8.4187876625890231e-05 -9.2393077406636894e-05 -0.0017622816740906347 7.0205403656694497e-06 -0.00061931249821277129 -4.2925093882451482e-05 -0.00033258195361865603 1.2689278584529042e-06 -4.6821182251522879e-05 -5.095338220881703e-05 -7.5769481370052094e-05 1.5519945036913689e-05 4.9478760859433085e-06 5.6942728965973052e-05 4.795501476821854e-06 2.3006843661475495e-05 -5.7025285594960574e-05 5.1796003633599677e-05 0.00032232989578769911 1.3358458913329297e-05 -0.00025570883132346856 3.5849670300647353e-05 -0.00052013690966278383 -0.00078223206558417795 0.00098420548961121847 2.8321280552651266e-05 -3.9568615161563234e-05 -0.0019111653803867716 -8.5705838728460809e-05 -0.00030636845899245077 -0.0001575751430039296 -0.0001288720527769239 0.00013816756259038099 -9.7398885628714114e-05 -0.00075466317935673816 -0.00030774901801302565 0.00030737702610897171 0.00010287783159847072 -0.00039264703929537526
leaf_weight=197240 1387379 8437 55924 332 173 400 59504 124535 1245057 56681 51819 35876 267670 29930 79931 21271 6910 2873 892 22563 1077 328 26375 51877 8386 808 8294 24127 5317 29734 1079659 50286 935855 3973 9171 6657 6916 18860 876802 5715 7959 80888 12610 30510 6514 30786 3853 5220 311245 278675 233 24444 23358 47987 2518 18267 3813 6570 64798 54951 171740 7369
leaf_count=197240 1387379 8437 55924 332 173 400 59504 124535 1245057 56681 51819 35876 267670 29930 79931 21271 6910 2873 892 22563 1077 328 26375 51877 8386 808 8294 24127 5317 29734 1079659 50286 935855 3973 9171 6657 6916 18860 876802 5715 7959 80888 12610 30510 6514 30786 3853 5220 311245 278675 233 24444 23358 47987 2518 18267 3813 6570 64798 54951 171740 7369
internal_value=-3.91185e-07 2.58316e-05 0.000230711 0.00098868 -3.20179e-05 0.00274035 -0.000182669 -2.3646e-05 1.55054e-05 -4.94562e-06 4.49354e-05 -0.00012305 2.52278e-06 3.45462e-05 -5.32164e-05 -0.000134137 -0.000276523 -0.000891363 -0.00286341 0.000171678 0.00341899 0.00385152 0.000169023 -0.000205625 -0.000276268 -0.000387395 -0.000333281 -0.000403234 -0.000484791 -1.53171e-05 -2.81538e-05 -0.000158109 -2.29792e-05 -0.000226764 -0.000292434 -0.000352357 -0.000136743 -0.000190024 9.7308e-06 -0.000411125 -0.000257529 0.000220724 0.00025737 -0.000249583 -0.000288285 -0.000469345 -0.000952127 0.000714585 -1.14753e-05 -1.93561e-05 -0.000344856 -0.000278129 -0.000193531 -5.69039e-05 -0.000572965 0.000288402 -0.000332034 -0.000463212 -0.000334523 0.000257584 6.25074e-05 -0.00056328
internal_weight=7.99992e+06 4.37361e+06 209858 15794 3.62631e+06 2137 190911 3.4354e+06 4.16375e+06 2.45663e+06 1.70712e+06 265591 2.32237e+06 1.57779e+06 190413 134254 131407 3938 1065 129333 1737 1405 194064 141056 89179 53303 48642 40348 31962 3.16981e+06 2.09577e+06 80253 2.01551e+06 77573 56302 47131 110482 80552 1.07404e+06 40474 127469 138140 111765 61692 54776 34759 4661 13657 1.88296e+06 1.57172e+06 29967 119510 47802 326662 26645 99155 48262 17752 71708 77514 439410 13939
internal_count=7999922 4373611 209858 15794 3626311 2137 190911 3435400 4163753 2456628 1707125 265591 2322374 1577792 190413 134254 131407 3938 1065 129333 1737 1405 194064 141056 89179 53303 48642 40348 31962 3169809 2095767 80253 2015514 77573 56302 47131 110482 80552 1074042 40474 127469 138140 111765 61692 54776 34759 4661 13657 1882964 1571719 29967 119510 47802 326662 26645 99155 48262 17752 71708 77514 439410 13939
is_linear=0
shrinkage=0.05


Tree=7
num_leaves=63
num_cat=0
split_feature=2 4 4 7 8 8 8 5 2 5 5 3 5 5 7 6 3 5 8 5 5 7 3 3 8 5 4 3 7 7 6 6 6 8 6 2 7 6 3 7 5 8 7 8 8 4 8 4 8 4 8 4 6 2 6 5 2 6 6 2 3 3
split_gain=1.96613 0.776801 1.05231 0.975182 1.78643 1.08074 1.28876 1.55676 0.72543 0.707416 0.686732 0.548577 0.527044 0.862788 0.706048 0.61592 0.48809 0.480815 0.470912 0.93404 0.655443 0.458686 0.457703 0.445472 0.409128 0.386991 0.355265 0.347907 0.337061 0.368106 0.308219 0.379391 0.31403 0.276554 0.241602 0.235138 0.236049 0.195032 0.191577 0.183616 0.168683 0.161836 0.157774 0.176066 0.147762 0.415273 0.222524 0.59512 0.358304 0.437944 0.403538 0.448259 0.215006 0.19892 0.137759 0.136822 0.13553 0.130825 0.123988 0.121202 0.116921 0.168483
threshold=5.5000000000000009 2.5000000000000004 9.5000000000000018 1.0000000180025095e-35 3.5000000000000004 2.5000000000000004 1.5000000000000002 118.00000000000001 8.5000000000000018 118.00000000000001 118.00000000000001 76.500000000000014 94.500000000000014 75.500000000000014 0.61946324522384733 6.5000000000000009 72.500000000000014 122.50000000000001 1.0000000180025095e-35 118.00000000000001 127.50000000000001 1.7113256058111452 76.500000000000014 65.500000000000014 3.5000000000000004 125.50000000000001 2.5000000000000004 75.500000000000014 0.90519239083940994 1.3984051608767543 108.00000000000001 106.00000000000001 5.0000000000000009 3.5000000000000004 5.0000000000000009 4.5000000000000009 0.82276095547898243 5.0000000000000009 71.500000000000014 0.26830579546364264 75.500000000000014 1.0000000180025095e-35 1.000000733022288 3.5000000000000004 3.5000000000000004 1.5000000000000002 2.5000000000000004 1.5000000000000002 1.5000000000000002 1.5000000000000002 1.0000000180025095e-35 1.5000000000000002 21.500000000000004 4.5000000000000009 76.500000000000014 75.500000000000014 4.5000000000000009 76.500000000000014 5.0000000000000009 4.5000000000000009 64.500000000000014 75.500000000000014
decision_type=2 2 2 8 2 2 2 2 2 2 2 2 2 2 10 2 2 2 2 2 2 10 2 2 2 2 2 2 10 10 2 2 2 2 2 2 10 2 2 10 2 2 10 2 2 2 2 2 2 2 2 2 2 2 2 2 2 2 2 2 2 2
left_child=1 44 30 4 5 6 18 -8 12 -6 -7 23 13 -2 39 21 -9 54 22 -20 -21 26 60 58 27 38 34 41 -10 37 31 32 59 55 -16 -34 -37 -30 -11 -15 -39 -25 43 -28 46 -46 48 53 50 -50 -1 -52 56 -48 -12 -13 -51 -18 -5 -3 -4 -62
right_child=8 2 3 11 9 10 7 16 28 25 17 33 -14 14 15 -17 57 -19 19 20 -22 -23 -24 24 -26 -27 42 -29 29 -31 -32 -33 35 -35 -36 36 -38 40 -40 -41 -42 -43 -44 -45 45 -47 47 -49 49 52 51 -53 -54 -55 -56 -57 -58 -59 -60 -61 61 -63
leaf_value=2.8478052752020228e-05 -1.7197967642383055e-05 3.358676222439083e-05 4.4930833694447968e-06 2.9192387129639016e-05 0.00020889899213375452 0.00029431818082949418 0.00012009893417219845 0.0018184157111368019 -0.00016503937882418715 -7.8653573738214944e-05 -0.0012107174244334674 1.0782091546028963e-05 2.0969745880437406e-05 3.2165460630253851e-05 -6.2461095112272859e-05 -4.9833339791315902e-05 0.0038234780225126692 0.00021054580067331546 2.641307030287632e-05 -0.0045966157194396312 6.1385491812277748e-05 -5.781348474048014e-05 -0.00017888547355721497 0.00012047623262672145 0.00022178939870943649 -4.8515428022123101e-05 -0.00020607427992540186 -2.38227737256717e-06 -0.00023218831580637994 -0.00016415514740404985 2.443846708398702e-05 -0.00026195589444541245 -1.7738932422201836e-05 0.00015619181754538815 -0.00030539874639309432 -2.8961966718804768e-05 -7.7305273556696886e-05 2.8404597324210071e-05 0.0015701815934982301 -0.00011167412019476564 -0.0008389272875322794 2.7966017785950579e-05 -0.00049432274837856447 -0.00049722337333445458 3.5913137443171671e-05 0.0001761444504780226 3.820293344539649e-05 -0.00020427273011574241 5.8180936453621254e-05 0.00015832963517456431 -3.3086015155301765e-05 -0.00033201986843256313 -3.7988646865954955e-05 -2.199038384322677e-05 -0.00051784721732395841 -0.00011073364005207803 0.00040727675847020221 0.0056977480422291497 -2.2783731145548112e-05 -1.3507382409651184e-05 0.00056050924508426207 0.00019662163380174905
leaf_weight=932704 177083 294309 1812 306727 1874 2266 771 314 17816 184 2723 29860 111303 38014 15047 37152 300 994 1074 220 115 18885 4727 189130 45181 445 13628 133858 2091 5823 366884 16654 1603323 13231 31996 636774 418427 606 4139 53288 7480 63031 29163 8389 672570 57291 268839 35317 326142 8328 119643 14009 5012 280416 974 103316 15915 135 183312 254987 8973 4928
leaf_count=932704 177083 294309 1812 306727 1874 2266 771 314 17816 184 2723 29860 111303 38014 15047 37152 300 994 1074 220 115 18885 4727 189130 45181 445 13628 133858 2091 5823 366884 16654 1603323 13231 31996 636774 418427 606 4139 53288 7480 63031 29163 8389 672570 57291 268839 35317 326142 8328 119643 14009 5012 280416 974 103316 15915 135 183312 254987 8973 4928
internal_value=-3.71624e-07 6.47947e-06 -5.85946e-06 3.68184e-05 0.000289287 0.000126623 0.000289484 0.00169725 -9.0054e-05 0.00103198 -0.000420434 2.80764e-05 -7.58309e-05 -0.000101323 -0.000161989 -0.000227215 0.00332072 -0.000765697 0.000191548 -0.000692568 -0.0029976 -0.000283488 0.000252493 4.23644e-05 7.94299e-05 0.00135548 -0.000326878 6.27677e-05 -0.000314635 -0.000481209 -1.89861e-05 -2.3927e-05 -2.26912e-05 -6.18278e-05 -0.000227694 -2.98023e-05 -4.81319e-05 -0.000662619 0.0015 -5.17859e-05 -0.000773926 9.73521e-05 -0.000418045 -0.000317009 2.76561e-05 4.69207e-05 2.06481e-05 -5.32067e-06 3.13254e-05 7.48043e-05 1.68347e-05 -6.44194e-05 0.000260126 7.47191e-06 -0.00102818 -8.3488e-05 0.000321758 0.00440515 9.74935e-06 1.17253e-05 0.000382266 0.000431509
internal_weight=7.99992e+06 7.43216e+06 4.69597e+06 1.10461e+06 36968 30326 23369 1520 567764 6642 6957 1.06765e+06 533948 422645 245562 154260 749 4691 21849 1409 335 117108 20440 921239 431200 4768 98223 386019 33816 16000 3.59136e+06 3.22447e+06 3.20782e+06 146407 47043 2.65852e+06 1.0552e+06 10177 4323 91302 8086 252161 51180 22017 2.73619e+06 729861 2.00632e+06 584572 1.42175e+06 355397 1.06636e+06 133652 29255 549255 3697 133176 24243 435 490039 549296 15713 13901
internal_count=7999922 7432158 4695972 1104614 36968 30326 23369 1520 567764 6642 6957 1067646 533948 422645 245562 154260 749 4691 21849 1409 335 117108 20440 921239 431200 4768 98223 386019 33816 16000 3591358 3224474 3207820 146407 47043 2658524 1055201 10177 4323 91302 8086 252161 51180 22017 2736186 729861 2006325 584572 1421753 355397 1066356 133652 29255 549255 3697 133176 24243 435 490039 549296 15713 13901
is_linear=0
shrinkage=0.05


Tree=8
num_leaves=63
num_cat=0
split_feature=0 5 1 0 5 5 5 2 4 2 4 1 4 3 3 5 5 1 0 0 0 1 0 1 2 3 4 4 0 1 0 5 5 3 1 1 0 1 5 5 3 0 1 0 3 0 0 3 3 0 4 4 3 1 2 0 3 0 0 1 2 1
split_gain=2.26803 3.20533 3.21717 2.54058 1.64712 1.48724 1.32875 0.945109 0.819566 0.787354 0.74286 0.696894 0.650389 0.62386 0.623434 0.557433 0.622771 0.544189 0.542631 0.485669 0.485304 1.91483 0.478048 0.425615 0.515035 0.385186 0.33513 0.46365 0.559037 0.487521 0.328934 0.319707 0.36367 0.312941 0.291726 0.330446 0.288255 0.270687 0.269878 0.356556 0.22547 0.23738 0.205422 0.205362 0.202336 0.19444 0.203515 0.189126 0.187601 0.18552 0.184375 0.451329 0.177648 0.169225 0.184219 0.165063 0.160697 0.157922 0.156527 0.198303 0.151434 0.147919
threshold=1.8999999900000002 118.00000000000001 1.0000000180025095e-35 2.6500000000000008 107.00000000000001 122.50000000000001 122.50000000000001 5.5000000000000009 2.5000000000000004 5.5000000000000009 1.5000000000000002 11.921650000000001 8.5000000000000018 72.500000000000014 71.500000000000014 48.000000000000007 85.500000000000014 4.7481500000000016 4.1000000000000005 2.8500000000000001 1.4900000100000004 1.0000000180025095e-35 1.2550000000000001 43.820250000000009 8.5000000000000018 72.500000000000014 1.5000000000000002 2.5000000000000004 1.5199999900000003 7.8942500000000004 1.9350000000000003 75.500000000000014 87.000000000000014 65.500000000000014 5.9302000000000001 42.826450000000001 1.3999999900000002 45.886000000000003 52.500000000000007 94.500000000000014 66.500000000000014 1.1399999900000002 33.873850000000012 4.8000000950000006 75.500000000000014 1.8350000250000003 1.8650000100000002 73.500000000000014 71.500000000000014 2.1250000000000004 6.5000000000000009 11.500000000000002 76.500000000000014 1.12985 3.5000000000000004 1.4500000250000002 47.500000000000007 1.8100000000000003 1.7100000250000003 0.097250000000000017 4.5000000000000009 5.9302000000000001
decision_type=2 2 2 2 2 2 2 2 2 2 2 2 2 2 2 2 2 2 2 2 2 2 2 2 2 2 2 2 2 2 2 2 2 2 2 2 2 2 2 2 2 2 2 2 2 2 2 2 2 2 2 2 2 2 2 2 2 2 2 2 2 2
left_child=4 8 3 48 7 13 20 26 10 12 15 -9 42 -5 -4 -2 34 -11 -15 -12 21 22 -6 24 38 -22 36 28 -28 -29 -16 -19 37 -14 -17 43 -1 50 -13 40 41 -40 60 -36 -32 57 -47 -44 -3 52 -33 -52 -50 -21 -55 -24 -56 58 59 -27 -10 -62
right_child=1 2 14 5 6 -7 -8 11 9 17 19 23 33 18 30 16 -18 31 -20 53 25 -23 55 -25 -26 45 27 29 -30 -31 44 32 -34 -35 35 -37 -38 -39 39 -41 -42 -43 47 -45 -46 46 -48 -49 49 -51 51 -53 -54 54 56 -57 -58 -59 -60 -61 61 -63
leaf_value=-4.5942033997425875e-05 4.2456683644351173e-05 -0.00017134332231878781 3.535768068296474e-05 0.0014091239627968266 -0.0050023277494293068 -0.00022883456389224976 2.400818453515535e-05 -2.6009435463539673e-05 6.6280446456004311e-06 1.2870902886818047e-05 8.0648392490166267e-05 -6.9424016871978686e-05 2.7674187198485537e-05 0.0031712707909615587 5.8425900617085538e-05 7.6021058859868058e-06 5.7535044278891504e-05 -4.8111411065553037e-05 0.0057734681790390496 0.00013202013154508702 4.1885890379277844e-05 -0.00016088875896553141 -0.0026464569730012522 -7.4463300353277265e-05 -0.00066664065412238335 -0.000725228313604221 -0.00031448074558927067 3.2357424818862701e-06 -4.1660117811355863e-05 -4.5958957720533449e-05 0.00033045011731318275 -0.00044342720833529805 1.5630284873895318e-05 0.00011732937708420131 -0.00025583182353731553 7.9450204903393203e-06 2.0961632164341441e-05 -7.3780574170108121e-05 3.2313358016857975e-05 -3.4016379925103091e-05 -3.036888063045953e-05 -0.00040859836888841632 -4.4238329633559413e-05 0.00010674120009924577 0.00018980328395044668 -8.7745534280705636e-05 -0.0002961494212738725 -0.00021578091780281945 0.00066478698987162944 0.00092715081442210827 1.9151636927307533e-05 -0.00056806382225390293 9.6237012265568302e-05 0.00016653695191190724 -6.0006691900434463e-06 -0.001228002697003165 0.00045439932687582081 -0.00051599883034474027 -0.00022001128984196146 -0.00032900702404463806 -4.6264853125541702e-06 -5.3739715725994708e-05
leaf_weight=197215 1387379 665 67185 406 175 407 59504 124463 1067573 48059 80517 21945 293881 1099 24315 29930 79931 25395 245 13771 10844 3099 581 51877 6989 3630 29967 1022967 50285 991961 53313 27634 10039 145529 57502 18860 876662 9544 3310 12295 5365 39268 157097 4190 49142 23716 23149 17898 6276 5046 8087 5496 1759 10749 2072 317 22224 9141 33307 24279 386142 254254
leaf_count=197215 1387379 665 67185 406 175 407 59504 124463 1067573 48059 80517 21945 293881 1099 24315 29930 79931 25395 245 13771 10844 3099 581 51877 6989 3630 29967 1022967 50285 991961 53313 27634 10039 145529 57502 18860 876662 9544 3310 12295 5365 39268 157097 4190 49142 23716 23149 17898 6276 5046 8087 5496 1759 10749 2072 317 22224 9141 33307 24279 386142 254254
internal_value=-3.53043e-07 2.38887e-05 0.000214552 0.000898235 -2.95905e-05 0.0024936 -0.00017221 -2.16284e-05 1.42791e-05 -4.21287e-06 4.08898e-05 -0.000112243 2.59299e-06 0.00312676 0.000158494 3.14466e-05 -4.8775e-05 -0.000121943 0.00364563 0.000156092 -0.000260503 -0.000791196 -0.00261163 -0.000188336 -0.000254583 -0.000243215 -1.40365e-05 -2.56772e-05 -0.000143534 -2.09831e-05 0.000223753 -0.00019711 -0.000259344 5.73673e-05 -0.000125688 -0.000175213 8.67493e-06 -0.000313726 -0.000219541 -0.00027423 -0.000335832 -0.000374322 -1.01892e-05 -0.000231207 0.00026299 -0.000269589 -0.000190687 -6.17832e-05 0.000647893 0.000689541 -0.000369286 -0.000218449 0.000540322 0.000280529 0.000338886 -0.00214573 0.000415136 -0.000322146 -0.000293199 -0.000380542 -4.90296e-06 -2.41257e-05
internal_weight=7.99992e+06 4.37361e+06 209858 15903 3.62631e+06 2157 191742 3.43457e+06 4.16375e+06 2.45663e+06 1.70712e+06 265512 2.32237e+06 1750 193955 1.57779e+06 190413 134254 1344 129333 132238 4172 1073 141049 89172 128066 3.16906e+06 2.09518e+06 80252 2.01493e+06 126770 86195 60800 439410 110482 80552 1.07388e+06 50761 82183 60238 47943 42578 1.88296e+06 61692 102455 117222 46865 174995 13746 13081 41217 13583 8035 48816 35045 898 24296 70357 61216 27909 1.70797e+06 640396
internal_count=7999922 4373611 209858 15903 3626311 2157 191742 3434569 4163753 2456628 1707125 265512 2322374 1750 193955 1577792 190413 134254 1344 129333 132238 4172 1073 141049 89172 128066 3169057 2095180 80252 2014928 126770 86195 60800 439410 110482 80552 1073877 50761 82183 60238 47943 42578 1882964 61692 102455 117222 46865 174995 13746 13081 41217 13583 8035 48816 35045 898 24296 70357 61216 27909 1707969 640396
is_linear=0
shrinkage=0.05


end of trees

feature_importances:
Column_0=110
Column_6=76
Column_5=74
Column_1=70
Column_7=59
Column_3=55
Column_4=50
Column_2=44
Column_8=20

parameters:
[boosting: gbdt]
[objective: huber]
[metric: l1]
[tree_learner: serial]
[device_type: cpu]
[data_sample_strategy: bagging]
[data: ]
[valid: ]
[num_iterations: 1000]
[learning_rate: 0.05]
[num_leaves: 63]
[num_threads: 0]
[seed: 0]
[deterministic: 0]
[force_col_wise: 0]
[force_row_wise: 0]
[histogram_pool_size: -1]
[max_depth: -1]
[min_data_in_leaf: 100]
[min_sum_hessian_in_leaf: 0.001]
[bagging_fraction: 0.8]
[pos_bagging_fraction: 1]
[neg_bagging_fraction: 1]
[bagging_freq: 5]
[bagging_seed: 3]
[bagging_by_query: 0]
[feature_fraction: 0.8]
[feature_fraction_bynode: 1]
[feature_fraction_seed: 2]
[extra_trees: 0]
[extra_seed: 6]
[early_stopping_round: 0]
[early_stopping_min_delta: 0]
[first_metric_only: 0]
[max_delta_step: 0]
[lambda_l1: 0]
[lambda_l2: 0]
[linear_lambda: 0]
[min_gain_to_split: 0]
[drop_rate: 0.1]
[max_drop: 50]
[skip_drop: 0.5]
[xgboost_dart_mode: 0]
[uniform_drop: 0]
[drop_seed: 4]
[top_rate: 0.2]
[other_rate: 0.1]
[min_data_per_group: 100]
[max_cat_threshold: 32]
[cat_l2: 10]
[cat_smooth: 10]
[max_cat_to_onehot: 4]
[top_k: 20]
[monotone_constraints: ]
[monotone_constraints_method: basic]
[monotone_penalty: 0]
[feature_contri: ]
[forcedsplits_filename: ]
[refit_decay_rate: 0.9]
[cegb_tradeoff: 1]
[cegb_penalty_split: 0]
[cegb_penalty_feature_lazy: ]
[cegb_penalty_feature_coupled: ]
[path_smooth: 0]
[interaction_constraints: ]
[verbosity: -1]
[saved_feature_importance_type: 0]
[use_quantized_grad: 0]
[num_grad_quant_bins: 4]
[quant_train_renew_leaf: 0]
[stochastic_rounding: 1]
[linear_tree: 0]
[max_bin: 255]
[max_bin_by_feature: ]
[min_data_in_bin: 3]
[bin_construct_sample_cnt: 200000]
[data_random_seed: 1]
[is_enable_sparse: 1]
[enable_bundle: 1]
[use_missing: 1]
[zero_as_missing: 0]
[feature_pre_filter: 1]
[pre_partition: 0]
[two_round: 0]
[header: 0]
[label_column: ]
[weight_column: ]
[group_column: ]
[ignore_column: ]
[categorical_feature: ]
[forcedbins_filename: ]
[precise_float_parser: 0]
[parser_config_file: ]
[objective_seed: 5]
[num_class: 1]
[is_unbalance: 0]
[scale_pos_weight: 1]
[sigmoid: 1]
[boost_from_average: 1]
[reg_sqrt: 0]
[alpha: 0.9]
[fair_c: 1]
[poisson_max_delta_step: 0.7]
[tweedie_variance_power: 1.5]
[lambdarank_truncation_level: 30]
[lambdarank_norm: 1]
[label_gain: ]
[lambdarank_position_bias_regularization: 0]
[eval_at: ]
[multi_error_top_k: 1]
[auc_mu_weights: ]
[num_machines: 1]
[local_listen_port: 12400]
[time_out: 120]
[machine_list_filename: ]
[machines: ]
[gpu_platform_id: -1]
[gpu_device_id: -1]
[gpu_use_dp: 0]
[num_gpu: 1]

end of parameters

pandas_categorical:null
